digraph Tree {
node [shape=box, style="filled, rounded", color="black", fontname="helvetica"] ;
edge [fontname="helvetica"] ;
0 [label="who <= 0.5\nsquared_error = 219.231\nsamples = 232\nvalue = 28.83", fillcolor="#f1bd97"] ;
1 [label="parch <= 0.5\nsquared_error = 23.439\nsamples = 34\nvalue = 5.358", fillcolor="#fdf5ef"] ;
0 -> 1 [labeldistance=2.5, labelangle=45, headlabel="True"] ;
2 [label="squared_error = 16.5\nsamples = 4\nvalue = 12.0", fillcolor="#fae5d6"] ;
1 -> 2 ;
3 [label="fare <= 100.929\nsquared_error = 17.697\nsamples = 30\nvalue = 4.472", fillcolor="#fdf7f3"] ;
1 -> 3 ;
4 [label="embark_town <= 1.0\nsquared_error = 9.757\nsamples = 26\nvalue = 3.587", fillcolor="#fef9f6"] ;
3 -> 4 ;
5 [label="squared_error = 0.858\nsamples = 5\nvalue = 1.184", fillcolor="#ffffff"] ;
4 -> 5 ;
6 [label="sibsp <= 0.5\nsquared_error = 10.174\nsamples = 21\nvalue = 4.159", fillcolor="#fef8f4"] ;
4 -> 6 ;
7 [label="fare <= 27.625\nsquared_error = 13.216\nsamples = 8\nvalue = 5.979", fillcolor="#fdf4ed"] ;
6 -> 7 ;
8 [label="squared_error = 13.04\nsamples = 5\nvalue = 7.4", fillcolor="#fcf0e8"] ;
7 -> 8 ;
9 [label="squared_error = 4.531\nsamples = 3\nvalue = 3.61", fillcolor="#fef9f6"] ;
7 -> 9 ;
10 [label="fare <= 26.875\nsquared_error = 5.009\nsamples = 13\nvalue = 3.038", fillcolor="#fefbf8"] ;
6 -> 10 ;
11 [label="pclass <= 2.5\nsquared_error = 5.988\nsamples = 9\nvalue = 2.5", fillcolor="#fefcfa"] ;
10 -> 11 ;
12 [label="fare <= 22.375\nsquared_error = 0.849\nsamples = 6\nvalue = 1.917", fillcolor="#fffdfc"] ;
11 -> 12 ;
13 [label="squared_error = 1.129\nsamples = 3\nvalue = 1.5", fillcolor="#fffefe"] ;
12 -> 13 ;
14 [label="squared_error = 0.222\nsamples = 3\nvalue = 2.333", fillcolor="#fefcfb"] ;
12 -> 14 ;
15 [label="squared_error = 14.222\nsamples = 3\nvalue = 3.667", fillcolor="#fef9f6"] ;
11 -> 15 ;
16 [label="squared_error = 0.688\nsamples = 4\nvalue = 4.25", fillcolor="#fdf8f3"] ;
10 -> 16 ;
17 [label="squared_error = 31.059\nsamples = 4\nvalue = 10.23", fillcolor="#fbe9dd"] ;
3 -> 17 ;
18 [label="class <= 1.5\nsquared_error = 141.997\nsamples = 198\nvalue = 32.861", fillcolor="#efb388"] ;
0 -> 18 [labeldistance=2.5, labelangle=-45, headlabel="False"] ;
19 [label="parch <= 1.5\nsquared_error = 145.115\nsamples = 150\nvalue = 35.017", fillcolor="#eeae80"] ;
18 -> 19 ;
20 [label="class <= 0.5\nsquared_error = 141.705\nsamples = 130\nvalue = 36.188", fillcolor="#eeab7b"] ;
19 -> 20 ;
21 [label="fare <= 30.25\nsquared_error = 158.182\nsamples = 87\nvalue = 37.954", fillcolor="#eda774"] ;
20 -> 21 ;
22 [label="who <= 1.5\nsquared_error = 198.91\nsamples = 12\nvalue = 44.583", fillcolor="#ea975c"] ;
21 -> 22 ;
23 [label="squared_error = 239.333\nsamples = 9\nvalue = 42.667", fillcolor="#ea9c63"] ;
22 -> 23 ;
24 [label="squared_error = 33.556\nsamples = 3\nvalue = 50.333", fillcolor="#e78946"] ;
22 -> 24 ;
25 [label="sibsp <= 0.5\nsquared_error = 143.509\nsamples = 75\nvalue = 36.893", fillcolor="#eda978"] ;
21 -> 25 ;
26 [label="fare <= 79.425\nsquared_error = 136.278\nsamples = 38\nvalue = 34.342", fillcolor="#efb082"] ;
25 -> 26 ;
27 [label="fare <= 37.45\nsquared_error = 129.484\nsamples = 16\nvalue = 28.875", fillcolor="#f1bd97"] ;
26 -> 27 ;
28 [label="squared_error = 154.4\nsamples = 5\nvalue = 39.0", fillcolor="#eca471"] ;
27 -> 28 ;
29 [label="embark_town <= 1.0\nsquared_error = 50.38\nsamples = 11\nvalue = 24.273", fillcolor="#f4c8a8"] ;
27 -> 29 ;
30 [label="fare <= 60.669\nsquared_error = 63.714\nsamples = 7\nvalue = 26.0", fillcolor="#f3c4a2"] ;
29 -> 30 ;
31 [label="squared_error = 138.667\nsamples = 3\nvalue = 28.0", fillcolor="#f2bf9a"] ;
30 -> 31 ;
32 [label="squared_error = 2.25\nsamples = 4\nvalue = 24.5", fillcolor="#f3c7a7"] ;
30 -> 32 ;
33 [label="squared_error = 12.688\nsamples = 4\nvalue = 21.25", fillcolor="#f5cfb3"] ;
29 -> 33 ;
34 [label="alone <= 0.5\nsquared_error = 103.671\nsamples = 22\nvalue = 38.318", fillcolor="#eda673"] ;
26 -> 34 ;
35 [label="squared_error = 56.188\nsamples = 4\nvalue = 46.25", fillcolor="#e99355"] ;
34 -> 35 ;
36 [label="fare <= 84.829\nsquared_error = 97.136\nsamples = 18\nvalue = 36.556", fillcolor="#eeaa7a"] ;
34 -> 36 ;
37 [label="squared_error = 246.222\nsamples = 3\nvalue = 41.333", fillcolor="#eb9f68"] ;
36 -> 37 ;
38 [label="embarked <= 1.0\nsquared_error = 61.84\nsamples = 15\nvalue = 35.6", fillcolor="#eead7d"] ;
36 -> 38 ;
39 [label="squared_error = 61.984\nsamples = 8\nvalue = 39.375", fillcolor="#eca36f"] ;
38 -> 39 ;
40 [label="squared_error = 26.776\nsamples = 7\nvalue = 31.286", fillcolor="#f0b78e"] ;
38 -> 40 ;
41 [label="fare <= 89.552\nsquared_error = 137.385\nsamples = 37\nvalue = 39.514", fillcolor="#eca36f"] ;
25 -> 41 ;
42 [label="embarked <= 1.0\nsquared_error = 122.4\nsamples = 25\nvalue = 42.4", fillcolor="#eb9c64"] ;
41 -> 42 ;
43 [label="fare <= 73.267\nsquared_error = 50.24\nsamples = 10\nvalue = 50.4", fillcolor="#e78946"] ;
42 -> 43 ;
44 [label="squared_error = 44.667\nsamples = 3\nvalue = 47.0", fillcolor="#e89152"] ;
43 -> 44 ;
45 [label="fare <= 78.733\nsquared_error = 45.551\nsamples = 7\nvalue = 51.857", fillcolor="#e68640"] ;
43 -> 45 ;
46 [label="squared_error = 16.188\nsamples = 4\nvalue = 53.75", fillcolor="#e58139"] ;
45 -> 46 ;
47 [label="squared_error = 73.556\nsamples = 3\nvalue = 49.333", fillcolor="#e78c4a"] ;
45 -> 47 ;
48 [label="fare <= 52.827\nsquared_error = 99.396\nsamples = 15\nvalue = 37.067", fillcolor="#eda978"] ;
42 -> 48 ;
49 [label="squared_error = 29.84\nsamples = 5\nvalue = 45.4", fillcolor="#e99558"] ;
48 -> 49 ;
50 [label="fare <= 72.279\nsquared_error = 82.09\nsamples = 10\nvalue = 32.9", fillcolor="#efb388"] ;
48 -> 50 ;
51 [label="squared_error = 50.408\nsamples = 7\nvalue = 29.143", fillcolor="#f1bc96"] ;
50 -> 51 ;
52 [label="squared_error = 46.222\nsamples = 3\nvalue = 41.667", fillcolor="#eb9e67"] ;
50 -> 52 ;
53 [label="embark_town <= 1.5\nsquared_error = 115.083\nsamples = 12\nvalue = 33.5", fillcolor="#efb285"] ;
41 -> 53 ;
54 [label="fare <= 109.892\nsquared_error = 66.734\nsamples = 8\nvalue = 28.375", fillcolor="#f2be99"] ;
53 -> 54 ;
55 [label="squared_error = 38.75\nsamples = 4\nvalue = 23.5", fillcolor="#f4caab"] ;
54 -> 55 ;
56 [label="squared_error = 47.188\nsamples = 4\nvalue = 33.25", fillcolor="#efb286"] ;
54 -> 56 ;
57 [label="squared_error = 54.188\nsamples = 4\nvalue = 43.75", fillcolor="#ea995f"] ;
53 -> 57 ;
58 [label="who <= 1.5\nsquared_error = 89.3\nsamples = 43\nvalue = 32.616", fillcolor="#efb489"] ;
20 -> 58 ;
59 [label="squared_error = 140.75\nsamples = 4\nvalue = 42.5", fillcolor="#eb9c63"] ;
58 -> 59 ;
60 [label="fare <= 11.425\nsquared_error = 72.977\nsamples = 39\nvalue = 31.603", fillcolor="#f0b68c"] ;
58 -> 60 ;
61 [label="squared_error = 38.188\nsamples = 4\nvalue = 26.75", fillcolor="#f2c29f"] ;
60 -> 61 ;
62 [label="fare <= 22.0\nsquared_error = 73.954\nsamples = 35\nvalue = 32.157", fillcolor="#f0b58a"] ;
60 -> 62 ;
63 [label="fare <= 14.929\nsquared_error = 61.791\nsamples = 18\nvalue = 34.028", fillcolor="#efb083"] ;
62 -> 63 ;
64 [label="embarked <= 1.5\nsquared_error = 40.17\nsamples = 14\nvalue = 32.25", fillcolor="#f0b58a"] ;
63 -> 64 ;
65 [label="squared_error = 8.222\nsamples = 3\nvalue = 26.667", fillcolor="#f2c29f"] ;
64 -> 65 ;
66 [label="squared_error = 38.062\nsamples = 11\nvalue = 33.773", fillcolor="#efb184"] ;
64 -> 66 ;
67 [label="squared_error = 87.688\nsamples = 4\nvalue = 40.25", fillcolor="#eca16c"] ;
63 -> 67 ;
68 [label="parch <= 0.5\nsquared_error = 79.204\nsamples = 17\nvalue = 30.176", fillcolor="#f1ba92"] ;
62 -> 68 ;
69 [label="squared_error = 41.959\nsamples = 7\nvalue = 28.429", fillcolor="#f2be98"] ;
68 -> 69 ;
70 [label="fare <= 26.625\nsquared_error = 101.64\nsamples = 10\nvalue = 31.4", fillcolor="#f0b78d"] ;
68 -> 70 ;
71 [label="squared_error = 144.56\nsamples = 5\nvalue = 33.8", fillcolor="#efb184"] ;
70 -> 71 ;
72 [label="squared_error = 47.2\nsamples = 5\nvalue = 29.0", fillcolor="#f1bc96"] ;
70 -> 72 ;
73 [label="embarked <= 1.0\nsquared_error = 100.34\nsamples = 20\nvalue = 27.4", fillcolor="#f2c09c"] ;
19 -> 73 ;
74 [label="squared_error = 4.4\nsamples = 5\nvalue = 20.0", fillcolor="#f6d2b8"] ;
73 -> 74 ;
75 [label="sibsp <= 0.5\nsquared_error = 107.982\nsamples = 15\nvalue = 29.867", fillcolor="#f1ba93"] ;
73 -> 75 ;
76 [label="fare <= 48.642\nsquared_error = 48.222\nsamples = 6\nvalue = 24.333", fillcolor="#f4c8a8"] ;
75 -> 76 ;
77 [label="squared_error = 6.889\nsamples = 3\nvalue = 20.333", fillcolor="#f6d1b7"] ;
76 -> 77 ;
78 [label="squared_error = 57.556\nsamples = 3\nvalue = 28.333", fillcolor="#f2be99"] ;
76 -> 78 ;
79 [label="sibsp <= 1.5\nsquared_error = 113.802\nsamples = 9\nvalue = 33.556", fillcolor="#efb185"] ;
75 -> 79 ;
80 [label="squared_error = 97.25\nsamples = 6\nvalue = 38.5", fillcolor="#eda672"] ;
79 -> 80 ;
81 [label="squared_error = 0.222\nsamples = 3\nvalue = 23.667", fillcolor="#f4c9aa"] ;
79 -> 81 ;
82 [label="fare <= 7.902\nsquared_error = 72.359\nsamples = 48\nvalue = 26.125", fillcolor="#f3c3a1"] ;
18 -> 82 ;
83 [label="who <= 1.5\nsquared_error = 16.482\nsamples = 19\nvalue = 22.789", fillcolor="#f4cbae"] ;
82 -> 83 ;
84 [label="fare <= 7.49\nsquared_error = 13.728\nsamples = 9\nvalue = 25.222", fillcolor="#f3c5a4"] ;
83 -> 84 ;
85 [label="squared_error = 6.688\nsamples = 4\nvalue = 23.25", fillcolor="#f4caac"] ;
84 -> 85 ;
86 [label="squared_error = 13.76\nsamples = 5\nvalue = 26.8", fillcolor="#f2c29f"] ;
84 -> 86 ;
87 [label="embarked <= 1.5\nsquared_error = 8.84\nsamples = 10\nvalue = 20.6", fillcolor="#f5d0b6"] ;
83 -> 87 ;
88 [label="squared_error = 2.0\nsamples = 3\nvalue = 17.0", fillcolor="#f7d9c3"] ;
87 -> 88 ;
89 [label="fare <= 7.763\nsquared_error = 3.837\nsamples = 7\nvalue = 22.143", fillcolor="#f5cdb0"] ;
87 -> 89 ;
90 [label="squared_error = 0.5\nsamples = 4\nvalue = 22.0", fillcolor="#f5cdb1"] ;
89 -> 90 ;
91 [label="squared_error = 8.222\nsamples = 3\nvalue = 22.333", fillcolor="#f5ccaf"] ;
89 -> 91 ;
92 [label="alone <= 0.5\nsquared_error = 96.904\nsamples = 29\nvalue = 28.31", fillcolor="#f2be99"] ;
82 -> 92 ;
93 [label="fare <= 10.242\nsquared_error = 42.5\nsamples = 12\nvalue = 26.0", fillcolor="#f3c4a2"] ;
92 -> 93 ;
94 [label="squared_error = 1.556\nsamples = 3\nvalue = 18.333", fillcolor="#f7d6be"] ;
93 -> 94 ;
95 [label="fare <= 16.275\nsquared_error = 30.025\nsamples = 9\nvalue = 28.556", fillcolor="#f1bd98"] ;
93 -> 95 ;
96 [label="fare <= 15.494\nsquared_error = 16.222\nsamples = 6\nvalue = 26.667", fillcolor="#f2c29f"] ;
95 -> 96 ;
97 [label="squared_error = 0.889\nsamples = 3\nvalue = 27.667", fillcolor="#f2c09b"] ;
96 -> 97 ;
98 [label="squared_error = 29.556\nsamples = 3\nvalue = 25.667", fillcolor="#f3c4a3"] ;
96 -> 98 ;
99 [label="squared_error = 36.222\nsamples = 3\nvalue = 32.333", fillcolor="#f0b48a"] ;
95 -> 99 ;
100 [label="fare <= 9.715\nsquared_error = 128.879\nsamples = 17\nvalue = 29.941", fillcolor="#f1ba93"] ;
92 -> 100 ;
101 [label="fare <= 9.081\nsquared_error = 142.087\nsamples = 14\nvalue = 31.357", fillcolor="#f0b78d"] ;
100 -> 101 ;
102 [label="fare <= 7.988\nsquared_error = 82.694\nsamples = 11\nvalue = 28.818", fillcolor="#f1bd97"] ;
101 -> 102 ;
103 [label="squared_error = 41.2\nsamples = 5\nvalue = 32.0", fillcolor="#f0b58b"] ;
102 -> 103 ;
104 [label="squared_error = 101.806\nsamples = 6\nvalue = 26.167", fillcolor="#f3c3a1"] ;
102 -> 104 ;
105 [label="squared_error = 249.556\nsamples = 3\nvalue = 40.667", fillcolor="#eba06a"] ;
101 -> 105 ;
106 [label="squared_error = 14.222\nsamples = 3\nvalue = 23.333", fillcolor="#f4caac"] ;
100 -> 106 ;
}